2.282930445611847103e-01
2.805171291659361299e-01
-3.225303763218888009e-01
-2.246055064677865698e-01
-2.703798815573298930e-01
-4.800746078038893860e-01
3.882826769615503881e-01
-3.115035453865039883e-01
-2.153963415457309516e-01
-4.941082065821548741e-01
2.258598982578051417e-01
-3.909185691637669796e-02
-3.625282939130411441e-01
-1.230590025430373761e-02
2.491659440598343322e-01
-2.215508111625566490e-01
-3.639973965441999915e-01
4.036881493495701745e-02
-3.628830714792206924e-02
-3.211846396839387330e-01
-4.462943691128424262e-01
-2.840764483324644263e-01
-4.219298679165143784e-01
-5.971065837736361237e-01
-6.530398683848693819e-01
-4.212475112677734335e-01
-6.031325380020762239e-01
-1.956032891837361856e-02
-2.043622108412228300e-01
-1.374417654101205699e-01
-3.118204558410911931e-01
-2.507431781210558430e-01
-5.575221536592822602e-01
-1.272519558409753171e-01
-6.184424789819669144e-01
5.259930900592575675e-02
4.098804364925788812e-01
3.698175277504606173e-01
-1.185270823578198074e-01
-8.024444889559788630e-01
3.396654644943817858e-01
8.603198348027629727e-02
-5.307942308182416191e-01
-1.004147286299440361e-01
-1.801996184482250463e-01
-6.071085239839351527e-02
-8.128365049056489600e-01
-5.477481085611055622e-01
-1.845062182452341382e-01
-5.574727022290639766e-01
-5.897149935923499120e-01
-2.058072735479613835e-01
1.284106130528989698e-01
-1.982141723687343704e-01
4.133056832010217341e-01
1.199916404026783318e-01
1.814713806360788440e-01
1.350361885761951763e-01
-1.869991493208003341e-01
7.759407923050390399e-02
-1.241443650898845369e-01
-1.931817751604973099e-01
2.270729439145459036e-02
4.430665853357670936e-01
-3.573360021298879197e-01
-2.262148677858708268e-01
-4.797165429849704066e-01
7.068052759406134866e-01
-4.340116553901223195e-01
-7.443319786547517025e-02
3.416936594918186243e-01
-1.325844617278451321e-01
-3.996226145563190890e-01
6.857812679240254949e-02
-5.844485356549607852e-02
-2.708855239786122082e-01
2.571677425660999217e-01
-3.325114897537088665e-01
3.893215762494349752e-01
6.708015600590981897e-01
-2.159615720110777126e-01
-6.391075428743246967e-01
-1.759916865386412788e-01
2.289466017879034643e-01
-6.415445187127247761e-01
-7.429912211987211856e-01
-1.074112014899886169e-01
1.426739134239281004e-01
-2.245441604533893187e-01
2.122212434405366110e-01
1.489838954158786422e-01
-6.072881383667182165e-02
-3.719347766405475819e-01
-2.000033828533631375e-01
-3.723067784125918545e-01
3.408704744592517266e-01
-5.290716472593101072e-01
-1.471665293508803984e-01
-5.050555706182128235e-01
-6.049133916583325776e-01
-5.622190658480938907e-01
-2.529804823138698811e-01
1.776167220257135748e-01
-3.777798133374928313e-01
2.192500615162419342e-01
6.272298685204127366e-01
1.858239024717645571e-01
-1.284410465356018369e-02
-5.610112089229718491e-01
8.476042562043581974e-01
2.720987311999474301e-01
-4.123002090039418893e-02
2.114055627530282422e-01
6.519458688136109403e-01
-3.439623564350770546e-01
-2.321054915694472920e-01
-7.914959937108800858e-01
-3.494565717544208527e-01
-7.992674557869240415e-01
-2.533306429103511781e-01
1.833438426563151896e-02
4.841234830999953109e-01
-4.003155144724738768e-01
-3.298297245455780180e-01
-3.604341803535751620e-01
-6.822913987401348912e-01
-3.141114435354077639e-01
7.142159906332176122e-01
-5.019956009745095704e-01
-7.057793175390848495e-01
-2.444444641391695094e-01
1.546529111403353307e-01
6.184824305368909897e-02
-2.438366092129630458e-02
-4.986118491792045082e-02
-8.019873870466748267e-01
2.058395704559371708e+00
5.435547567832329507e-01
